tree
version=v4
num_class=1
num_tree_per_iteration=1
label_index=0
max_feature_idx=21
objective=binary sigmoid:1
feature_names=age scholarship hipertension diabetes alcoholism handcap sms_received date_diff scheduledday_year scheduledday_month scheduledday_day scheduledday_dow scheduledday_hour scheduledday_is_weekend scheduledday_part_of_day appointmentday_year appointmentday_month appointmentday_day appointmentday_dow appointmentday_hour appointmentday_is_weekend appointmentday_part_of_day
feature_infos=[1:115] [0:1] [0:1] [0:1] [0:1] [0:1] [0:1] [-6:179] [2015:2016] [1:12] [1:31] [0:5] none [0:1] none none [4:6] [1:31] [0:5] none [0:1] none
tree_sizes=3332 3506 3509 3516 3518 3500 3491 3502 3512 3530

Tree=0
num_leaves=31
num_cat=0
split_feature=7 0 7 6 7 6 0 0 9 4 7 11 0 5 7 1 0 0 10 7 0 4 0 2 11 1 4 0 17 10
split_gain=8537 1157.88 460.534 171.531 117.275 91.3325 61.6744 55.3431 42.1972 35.2622 32.2281 31.2298 35.7973 41.6064 28.7192 26.9963 26.0927 38.9651 25.0773 30.6733 24.2103 21.8294 19.6298 18.9334 17.9012 17.9863 16.0105 14.9978 13.5877 13.3821
threshold=1.0000000180025095e-35 46.500000000000007 8.5000000000000018 1.0000000180025095e-35 8.5000000000000018 1.0000000180025095e-35 24.500000000000004 5.5000000000000009 4.5000000000000009 1.0000000180025095e-35 20.500000000000004 1.5000000000000002 18.500000000000004 1.0000000180025095e-35 4.5000000000000009 1.0000000180025095e-35 11.500000000000002 35.500000000000007 13.500000000000002 24.500000000000004 56.500000000000007 1.0000000180025095e-35 35.500000000000007 1.0000000180025095e-35 2.5000000000000004 1.0000000180025095e-35 1.0000000180025095e-35 30.500000000000004 10.500000000000002 25.500000000000004
decision_type=2 2 2 2 2 2 2 2 2 2 2 2 2 2 2 2 2 2 2 2 2 2 2 2 2 2 2 2 2 2
left_child=6 2 9 10 26 20 7 -1 23 14 22 -9 13 -13 27 -11 -16 -18 -7 -20 21 -6 -4 28 25 -12 -3 -2 -5 -22
right_child=1 4 3 8 5 18 -8 11 -10 15 24 12 -14 -15 16 -17 17 -19 19 -21 29 -23 -24 -25 -26 -27 -28 -29 -30 -31
leaf_value=1.4237592273848225 1.3469014581609076 1.3716601976126483 1.3083615402387412 1.3158752682016601 1.3346384617889278 1.3715333012171014 1.4218354287326735 1.414326187923459 1.3355789997081302 1.3285571550286626 1.3065711505565734 1.3954228163494637 1.4155324252013444 1.3120514222580453 1.3534851817040214 1.2518065681614319 1.3306024113623522 1.3511785701230179 1.3646725017930121 1.3434692876757213 1.3527230593856803 1.2763756814437206 1.327859605453414 1.3504189725274254 1.2860412011854014 1.2774321984604533 1.3519685916177648 1.3570075500239238 1.3265831845400302 1.3335148689364109
leaf_weight=629.66905792057514 932.62761157751083 2365.6619648486376 531.75285337865353 706.09540238976479 306.83642314374447 541.44752709567547 3841.5144603699446 663.11568224430084 953.14800427854061 38.45553907752037 454.35704153776169 596.22243359684944 258.20147666335106 15.349900051951407 318.6316094994545 16.319367423653603 721.2837245464325 337.85937903821468 500.72989748418331 258.68621034920216 442.07712149620056 16.965679004788399 170.46467952430248 54.774906501173973 216.67595757544041 59.945399150252342 107.93403404951096 605.43237362802029 510.42457120120525 114.07399407029152
leaf_count=3897 5772 14641 3291 4370 1899 3351 23775 4104 5899 238 2812 3690 1598 95 1972 101 4464 2091 3099 1601 2736 105 1055 339 1341 371 668 3747 3159 706
internal_value=1.36987 1.34423 1.33081 1.31893 1.36335 1.3549 1.41803 1.41128 1.32763 1.34544 1.30544 1.40615 1.39992 1.39333 1.34618 1.30569 1.34094 1.33717 1.36331 1.35745 1.34245 1.33159 1.31309 1.32166 1.2981 1.30317 1.3708 1.35088 1.32037 1.34878
internal_weight=17286.7 11282.7 6628.25 3657.64 4654.41 2180.82 6004.07 2162.56 2224.44 2970.61 1433.2 1532.89 869.774 611.572 2915.83 54.7749 1377.77 1059.14 1300.86 759.416 879.953 323.802 702.218 1271.29 730.978 514.302 2473.6 1538.06 1216.52 556.151
internal_count=106987 69828 41022 22637 28806 13497 37159 13384 13767 18385 8870 9487 5383 3785 18046 339 8527 6555 8051 4700 5446 2004 4346 7868 4524 3183 15309 9519 7529 3442
is_linear=0
shrinkage=1


Tree=1
num_leaves=31
num_cat=0
split_feature=7 0 7 6 7 6 0 0 9 11 0 5 4 7 7 0 0 10 7 1 0 4 0 2 4 11 1 10 10 0
split_gain=7816.71 1000.4 387.618 140.658 104.468 79.9833 60.7526 54.1942 35.2921 30.1791 34.3535 37.3461 29.6846 26.1076 25.8758 23.2706 51.6177 22.3887 26.9445 21.2922 20.7165 17.7985 16.0747 15.9154 14.3133 14.1277 14.19 12.9495 12.764 13.471
threshold=1.0000000180025095e-35 46.500000000000007 8.5000000000000018 1.0000000180025095e-35 8.5000000000000018 1.0000000180025095e-35 24.500000000000004 5.5000000000000009 4.5000000000000009 1.5000000000000002 18.500000000000004 1.0000000180025095e-35 1.0000000180025095e-35 1.5000000000000002 20.500000000000004 30.500000000000004 11.500000000000002 13.500000000000002 24.500000000000004 1.0000000180025095e-35 56.500000000000007 1.0000000180025095e-35 35.500000000000007 1.0000000180025095e-35 1.0000000180025095e-35 2.5000000000000004 1.0000000180025095e-35 4.5000000000000009 13.500000000000002 11.500000000000002
decision_type=2 2 2 2 2 2 2 2 2 2 2 2 2 2 2 2 2 2 2 2 2 2 2 2 2 2 2 2 2 2
left_child=6 2 12 14 24 20 7 -1 23 -9 11 -11 13 -2 22 16 -15 -7 -19 -14 21 27 -4 -5 -3 26 -16 -6 -10 -30
right_child=1 4 3 8 5 17 -8 9 28 10 -12 -13 19 15 25 -17 -18 18 -20 -21 -22 -23 -24 -25 -26 -27 -28 -29 29 -31
leaf_value=0.052934895570475385 -0.011029704465181983 0.0017060355659286094 -0.056311504405072182 -0.045641726452551074 -0.0093381721008733553 0.0015852319329399491 0.050983742347155983 0.043412431665184575 -0.037727346036503469 0.024662926531395991 0.044623865246498563 -0.053048702722033617 -0.038277222805600419 -0.015559957415242163 -0.057889555236984594 -0.01804454602983924 -0.034669145688991237 -0.0049185474588567639 -0.024679180082947699 -0.10459956259071013 -0.019773412692571993 -0.084010402574560245 -0.038907381580377015 -0.01825810843073691 -0.016818999076271757 -0.075749184665286975 -0.083111887979161761 -0.037173136086562995 -0.011614671189386421 -0.030918975776293302
leaf_weight=609.52440328896046 446.0315708220005 2363.138198569417 551.22221128642559 1252.3628032803535 49.654596194624901 540.9107388406992 3722.9927860200405 645.60755431652069 478.30224739015102 587.16734692454338 251.19958934187889 15.87818458676338 39.401033222675323 545.14072865247726 471.47709405422211 961.08051179349422 1004.6743900626898 502.27674534916878 262.74956512451172 17.466065675020218 563.12795478105545 17.909914255142212 174.72664669156075 55.40869215130806 109.08335989713669 227.48878486454487 63.244010403752327 263.61476650834084 119.0397182404995 375.25539988279343
leaf_count=3897 2729 14641 3291 7529 301 3351 23775 4104 2901 3690 1598 95 238 3336 2812 5880 6101 3099 1601 101 3442 105 1055 339 668 1341 371 1598 722 2276
internal_value=2.41317e-05 -0.0239669 -0.0362314 -0.0469208 -0.00616445 -0.0140894 0.0471426 0.0403631 -0.0391173 0.035254 0.0290882 0.0226168 -0.022865 -0.0221769 -0.0588783 -0.024157 -0.0279476 -0.00620049 -0.0117054 -0.0586474 -0.0256094 -0.0355327 -0.0521226 -0.0444815 0.000888644 -0.0653127 -0.0608727 -0.0327612 -0.0319045 -0.02627
internal_weight=17287.2 11454.8 6782.32 3768.53 4672.47 2200.24 5832.37 2109.38 2280.37 1499.85 854.245 603.046 3013.79 2956.93 1488.16 2510.9 1549.82 1305.94 765.026 56.8671 894.307 331.179 725.949 1307.77 2472.22 762.21 534.721 313.269 972.597 494.295
internal_count=106987 69828 41022 22637 28806 13497 37159 13384 13767 9487 5383 3785 18385 18046 8870 15317 9437 8051 4700 339 5446 2004 4346 7868 15309 4524 3183 1899 5899 2998
is_linear=0
shrinkage=0.05


Tree=2
num_leaves=31
num_cat=0
split_feature=7 0 7 6 7 6 0 0 9 11 0 5 4 7 7 0 0 0 0 1 4 0 2 0 10 7 0 11 2 11
split_gain=7164.87 867.906 328.757 116.794 93.1493 70.2135 59.9034 53.1164 29.7755 29.1616 32.9644 33.6012 25.22 23.1857 21.1338 20.8724 20.0912 29.9106 17.815 17.1895 14.7305 13.7962 13.4802 13.3273 12.5998 16.882 11.8526 11.537 11.5119 12.5502
threshold=1.0000000180025095e-35 46.500000000000007 8.5000000000000018 1.0000000180025095e-35 8.5000000000000018 1.0000000180025095e-35 24.500000000000004 5.5000000000000009 4.5000000000000009 1.5000000000000002 18.500000000000004 1.0000000180025095e-35 1.0000000180025095e-35 4.5000000000000009 20.500000000000004 61.500000000000007 11.500000000000002 35.500000000000007 56.500000000000007 1.0000000180025095e-35 1.0000000180025095e-35 51.500000000000007 1.0000000180025095e-35 35.500000000000007 13.500000000000002 24.500000000000004 30.500000000000004 1.5000000000000002 1.0000000180025095e-35 2.5000000000000004
decision_type=2 2 2 2 2 2 2 2 2 2 2 2 2 2 2 2 2 2 2 2 2 2 2 2 2 2 2 2 2 2
left_child=6 2 12 14 21 18 7 -1 22 -9 11 -11 13 26 23 24 -15 -18 20 -14 -6 -3 -5 -4 -7 27 -2 -26 29 -16
right_child=1 4 3 8 5 15 -8 9 -10 10 -12 -13 19 16 28 -17 17 -19 -20 -21 -22 -23 -24 -25 25 -27 -28 -29 -30 -31
leaf_value=0.052010296386237401 -0.020087821369738676 -0.0074552193032276825 -0.051776759307502189 -0.042215223104199229 -0.030522706470019506 -0.0032947249324363306 0.050028781795688475 0.042388386463918841 -0.029739674910688164 0.023792367069881887 0.04360570537287576 -0.048864329171742035 -0.035551198270399237 -0.014493427618315007 -0.056752527918375789 0.0014888306944902683 -0.034250298045090673 -0.016471003894536661 -0.018563172820776897 -0.093800861488128204 -0.076117008423494836 0.0025266320440200441 -0.017155948810332441 -0.036123514336203762 -0.019978632047698879 -0.029687692777564952 -0.011197547292627064 -0.00026081598051475588 -0.029983695521598297 -0.070747564661204146
leaf_weight=589.84337814152241 958.10875895619392 416.29775892198086 569.04010753333569 1285.419518083334 319.25551274418831 298.66352641582489 3607.3056668043137 628.58065009117126 990.7063514739275 578.44530612230301 244.38612681627274 16.362821608781815 40.277559041976929 324.68828791379929 529.75820696353912 555.57719780504704 751.41646647453308 345.24539838731289 569.67515912652016 18.474798992276192 18.755467236042023 2054.6046557724476 56.004091501235962 178.67602296173573 139.46777415275574 158.49882376194 615.91406841576099 158.48610699176788 31.175579100847244 229.62989312410355
leaf_count=3897 5772 2579 3291 7529 1899 1852 23775 4104 5899 3690 1598 95 238 1972 3048 3414 4464 2091 3442 101 105 12730 339 1055 858 952 3747 975 178 1298
internal_value=4.47778e-05 -0.022442 -0.0336901 -0.0433679 -0.00583235 -0.0132697 0.0461456 0.0393378 -0.0363137 0.0342452 0.0281456 0.0217936 -0.0214256 -0.0207893 -0.0540624 -0.00586715 -0.0254185 -0.0286531 -0.0239589 -0.0538679 -0.0330526 0.000844889 -0.041169 -0.0480362 -0.0112793 -0.0165037 -0.0166091 -0.00949043 -0.059762 -0.0609845
internal_weight=17278.7 11613.8 6924.54 3870.41 4689.28 2218.38 5664.92 2057.62 2332.13 1467.77 839.194 594.808 3054.13 2995.37 1538.28 1310.69 1421.35 1096.66 907.686 58.7524 338.011 2470.9 1341.42 747.716 755.116 456.453 1574.02 297.954 790.564 759.388
internal_count=106987 69828 41022 22637 28806 13497 37159 13384 13767 9487 5383 3785 18385 18046 8870 8051 8527 6555 5446 339 2004 15309 7868 4346 4637 2785 9519 1833 4524 4346
is_linear=0
shrinkage=0.05


Tree=3
num_leaves=31
num_cat=0
split_feature=7 0 7 6 7 6 0 0 11 0 5 9 1 4 0 0 0 7 0 7 0 4 4 17 7 1 10 18 1 10
split_gain=6573.52 755.716 280.69 98.0039 83.1282 61.7797 59.1096 52.0933 28.1721 31.6234 30.2898 25.3034 21.5955 23.7747 18.6545 18.5205 37.4533 17.5042 15.3944 13.2097 13.1354 18.9712 12.3424 11.7376 11.5311 11.3484 11.2907 11.2478 12.8946 11.2324
threshold=1.0000000180025095e-35 46.500000000000007 8.5000000000000018 1.0000000180025095e-35 8.5000000000000018 1.0000000180025095e-35 24.500000000000004 5.5000000000000009 1.5000000000000002 18.500000000000004 1.0000000180025095e-35 4.5000000000000009 1.0000000180025095e-35 1.0000000180025095e-35 61.500000000000007 11.500000000000002 30.500000000000004 20.500000000000004 56.500000000000007 4.5000000000000009 61.500000000000007 1.0000000180025095e-35 1.0000000180025095e-35 10.500000000000002 6.5000000000000009 1.0000000180025095e-35 25.500000000000004 1.0000000180025095e-35 1.0000000180025095e-35 27.500000000000004
decision_type=2 2 2 2 2 2 2 2 2 2 2 2 2 2 2 2 2 2 2 2 2 2 2 2 2 2 2 2 2 2
left_child=6 2 12 17 20 18 7 -1 -9 10 -10 23 15 24 25 -2 19 -4 22 -17 21 -3 -6 -5 -14 -7 -20 -28 -29 -16
right_child=1 4 3 11 5 14 -8 8 9 -11 -12 -13 13 -15 29 16 -18 -19 26 -21 -22 -23 -24 -25 -26 -27 27 28 -30 -31
leaf_value=0.051115124857142424 -0.010618618502067842 -0.0011021879125090108 -0.044414438167547643 -0.042125244539269163 -0.028485869722394655 -0.0090797185290998478 0.049100566329884465 0.041385389978830914 0.022944352927457404 0.042609082416288274 -0.045159505983435891 -0.027767107494309485 -0.022913284019514382 -0.084915480718802033 0.0035603969384450187 -0.021847607147686514 -0.013738987298021726 -0.054931381994418507 -0.013865570989245483 -0.032875579323926749 0.0047787066728633108 -0.027110533794249034 -0.069427935391454934 -0.032752727628209875 -0.042412224004027756 -0.0345428912748506 -0.0056484588960873479 -0.03645677768044378 -0.133824086806796 -0.022171638585916791
leaf_weight=570.65339143574238 586.46937410533428 1267.0007883012295 767.70371000468731 797.88508811593056 324.82983811199665 713.47869323194027 3494.5994183421135 612.04768967628479 570.0508676469326 237.76673254370689 16.807897984981537 1007.5795181244612 282.84406818449497 19.362942799925804 508.82271495461464 569.66308984160423 1010.9715195894241 816.3635458946228 456.67699241638184 518.88464944064617 1128.4370575249195 74.222019672393799 19.513524994254112 574.6164349168539 103.59001184999943 46.616088032722473 31.727300524711609 83.874831706285477 3.5440069735050193 46.265898853540421
leaf_count=3897 3521 7855 4346 4563 1899 4353 23775 4104 3690 1598 95 5899 1688 101 3134 3383 6063 4524 2736 3017 7004 450 105 3305 612 284 188 497 21 280
internal_value=6.2377e-05 -0.0210409 -0.0313906 -0.0401978 -0.00551966 -0.0125054 0.0451727 0.0383347 0.0332583 0.0272262 0.0209938 -0.0337841 -0.0200985 -0.0308494 -0.00555255 -0.0184743 -0.0206686 -0.0498344 -0.0224429 -0.0271044 0.000803268 -0.00254147 -0.030806 -0.0382013 -0.0281403 -0.0106414 -0.0174418 -0.0311491 -0.0404041 0.00141567
internal_weight=17262.9 11760.9 7055.93 3964.15 4705.01 2235.35 5501.93 2007.33 1436.67 824.625 586.859 2380.08 3091.79 405.797 1315.18 2685.99 2099.52 1584.07 920.166 1088.55 2469.66 1341.22 344.343 1372.5 386.434 760.095 575.823 119.146 87.4188 555.089
internal_count=106987 69828 41022 22637 28806 13497 37159 13384 9487 5383 3785 13767 18385 2401 8051 15984 12463 8870 5446 6400 15309 8305 2004 7868 2300 4637 3442 706 518 3414
is_linear=0
shrinkage=0.05


Tree=4
num_leaves=31
num_cat=0
split_feature=7 0 7 6 7 0 6 0 11 0 9 5 7 1 10 7 0 0 4 7 17 0 9 3 17 0 2 0 18 10
split_gain=6035.83 660.144 241.039 82.9761 74.2421 58.3556 54.4575 51.1109 27.7096 29.8261 21.6396 21.5624 20.3804 18.8206 18.1486 21.4175 16.9281 32.0174 16.8609 14.6742 14.6155 16.4215 12.1098 11.9594 12.2133 11.9131 11.2782 10.9557 10.6477 10.5448
threshold=1.0000000180025095e-35 46.500000000000007 8.5000000000000018 1.0000000180025095e-35 8.5000000000000018 24.500000000000004 1.0000000180025095e-35 5.5000000000000009 1.0000000180025095e-35 18.500000000000004 4.5000000000000009 1.0000000180025095e-35 1.5000000000000002 1.0000000180025095e-35 13.500000000000002 24.500000000000004 11.500000000000002 30.500000000000004 1.0000000180025095e-35 20.500000000000004 27.000000000000004 51.500000000000007 5.5000000000000009 1.0000000180025095e-35 22.000000000000004 51.500000000000007 1.0000000180025095e-35 35.500000000000007 3.5000000000000004 13.500000000000002
decision_type=2 2 2 2 2 2 2 2 2 2 2 2 2 2 2 2 2 2 2 2 2 2 2 2 2 2 2 2 2 2
left_child=5 2 12 19 25 7 20 -1 -9 11 26 -10 -2 16 -8 -16 -14 -18 22 27 21 -6 -15 24 -23 -3 -5 -4 -17 -12
right_child=1 4 3 10 6 -7 14 8 9 -11 29 -13 13 18 15 28 17 -19 -20 -21 -22 23 -24 -25 -26 -27 -28 -29 -30 -31
leaf_value=0.050245824185313107 -0.0092574827632072917 -0.0069211547649184598 -0.044475188437645218 -0.036457177710074222 -0.036608849712615486 0.048195843558309491 0.001765905066890212 0.046886019625047584 0.025057063958159653 0.04135190257750479 -0.031105868773910413 -0.024649023671569986 -0.01073406468128738 -0.032312725992561263 -0.0040914904522847345 -0.025643685207171963 -0.027612051899126879 -0.014278534346997114 -0.080814444707097449 -0.050684486382507103 0.0028719033488463831 -0.015131578771760008 -0.0033163713538677739 -0.034499577816996009 -0.054181505219578686 0.0023339241702183865 -0.013901733297337427 -0.030607826762990051 0.00233240126023986 -0.020953856987515063
leaf_weight=551.97581286728382 468.63644871115685 418.72900713980198 599.28569903969765 1343.4479638785124 170.37517112493515 3384.9856372922659 542.08885130286217 264.17037978768349 780.83706080913544 339.10475194454193 504.86506743729115 22.445275485515594 496.93717864155769 301.4505106061697 506.93728479743004 230.52819091081619 929.9973292350769 872.75033038854599 16.355442613363266 839.89040005207062 59.778128534555435 571.59542579948902 40.891801059246063 109.30676464736462 20.749957412481308 2049.7216856777668 57.805804148316383 186.83009579777718 39.897714555263519 518.44878521561623
leaf_count=3897 2788 2579 3291 7529 974 23775 3351 1819 5197 2340 2901 131 2966 1761 3099 1365 5363 5185 82 4524 351 3355 240 644 122 12730 339 1055 236 2998
internal_value=7.74697e-05 -0.0197492 -0.0292998 -0.0373505 -0.00522481 0.0442213 -0.0117914 0.0373521 0.0322921 0.0289174 -0.03149 0.0236682 -0.0188714 -0.0205662 -0.00525626 -0.0101531 -0.0189047 -0.021157 -0.0312186 -0.0460891 -0.0210452 -0.0226847 -0.0288492 -0.0193036 -0.0164995 0.000763964 -0.0355267 -0.0411794 -0.0215162 -0.0259625
internal_weight=17240.8 11897.3 7177.59 4050.57 4719.71 5343.52 2251.26 1958.53 1406.56 1142.39 2424.57 803.282 3127.02 2658.38 1319.45 777.363 2299.68 1802.75 358.698 1626.01 931.805 872.027 342.342 701.652 592.345 2468.45 1401.25 786.116 270.426 1023.31
internal_count=106987 69828 41022 22637 28806 37159 13497 13384 9487 7668 13767 5328 18385 15597 8051 4700 13514 10548 2083 8870 5446 5095 2001 4121 3477 15309 7868 4346 1601 5899
is_linear=0
shrinkage=0.05


Tree=5
num_leaves=31
num_cat=0
split_feature=7 0 7 6 7 0 0 6 11 0 5 9 4 7 0 0 0 1 0 17 0 7 0 4 17 17 18 7 11 1
split_gain=5545.93 578.314 208.057 70.8071 66.3481 57.6456 50.168 48.0796 26.9141 28.7059 19.7662 18.6134 18.3208 18.2454 16.5407 14.9969 24.9073 12.9776 13.081 12.8854 14.1938 11.4077 11.399 16.8268 11.3838 11.3781 13.3521 11.1416 13.973 10.6308
threshold=1.0000000180025095e-35 46.500000000000007 8.5000000000000018 1.0000000180025095e-35 8.5000000000000018 24.500000000000004 5.5000000000000009 1.0000000180025095e-35 1.0000000180025095e-35 18.500000000000004 1.0000000180025095e-35 4.5000000000000009 1.0000000180025095e-35 1.5000000000000002 61.500000000000007 35.500000000000007 11.500000000000002 1.0000000180025095e-35 5.5000000000000009 27.000000000000004 51.500000000000007 34.500000000000007 61.500000000000007 1.0000000180025095e-35 1.5000000000000002 6.5000000000000009 1.0000000180025095e-35 15.500000000000002 2.5000000000000004 1.0000000180025095e-35
decision_type=2 2 2 2 2 2 2 2 2 2 2 2 2 2 2 2 2 2 2 2 2 2 2 2 2 2 2 2 2 2
left_child=5 2 12 17 22 6 -1 19 -8 10 -10 -5 13 -2 -9 16 24 18 -4 20 -6 25 23 -3 -15 26 -19 -20 -29 -22
right_child=1 4 3 11 7 -7 8 14 9 -11 -12 -13 -14 15 -16 -17 -18 21 27 -21 29 -23 -24 -25 -26 -27 -28 28 -30 -31
leaf_value=0.049399201289956583 -0.008008487162139059 -0.0010172338661625379 -0.05354454880583355 -0.033105123291737926 -0.034078625131562207 0.047311708883603774 0.045965476939066982 -0.0097360743816140294 0.024196124487853493 0.040390052123235098 -0.023093626525088243 -0.024306219224198764 -0.044524077167961841 -0.05219125183732181 0.0015885305203186463 -0.012497641730590659 -0.024676219989504547 -0.094680417620464266 -0.032423971651636033 0.0027328524104259892 -0.016969256160536378 -0.087063316188765588 0.0044426639459190882 -0.025328732471979677 -0.010937572069239562 -0.054590997022535497 0.0034148519631184435 -0.038099639329899557 -0.051747175580810191 -0.05029287095840404
leaf_weight=533.82643742859364 460.31226970255375 1268.2553520053625 183.19411009550095 1427.8402460217476 173.78216397762299 3278.5461612045765 256.19163531064987 767.23125858604908 768.5089452713728 330.05319675803185 22.750995427370071 1037.9851378649473 62.556617215275764 17.25047655403614 556.18379829823971 695.62496316432953 1377.7977357655764 4.3327598869800594 406.17003132402897 59.681247904896736 684.49622002243996 23.578881293535233 1123.6523915231228 75.405235439538956 546.45673434436321 168.00961475074291 17.39876663684845 585.81387986242771 275.87373632192612 24.800395056605339
leaf_count=3897 2729 7855 973 7868 974 23775 1819 4637 5197 2340 131 5899 339 102 3414 4110 7871 23 2200 351 3979 122 7004 450 3234 893 93 3121 1445 142
internal_value=9.03665e-05 -0.0185555 -0.0273914 -0.0347798 -0.00494691 0.0432882 0.0363867 -0.0111236 0.0313439 0.0280032 0.0228364 -0.0294012 -0.0177346 -0.0171936 -0.00497675 -0.0187969 -0.0210538 -0.0427484 -0.0410555 -0.0197525 -0.0212721 -0.0542635 0.000726288 -0.00238158 -0.0122 -0.0501875 -0.0161431 -0.039251 -0.042469 -0.0181344
internal_weight=17213.6 12023.7 7290.2 4130.2 4733.49 5189.88 1911.33 2266.18 1377.5 1121.31 791.26 2465.83 3160 3097.44 1323.42 2637.13 1941.5 1664.37 1451.05 942.76 883.079 213.32 2467.31 1343.66 563.707 189.741 21.7315 1267.86 861.688 709.297
internal_count=106987 69828 41022 22637 28806 37159 13384 13497 9487 7668 5328 13767 18385 18046 8051 15317 11207 8870 7739 5446 5095 1131 15309 8305 3336 1009 116 6766 4566 4121
is_linear=0
shrinkage=0.05


Tree=6
num_leaves=31
num_cat=0
split_feature=7 0 7 6 7 0 0 6 11 0 5 7 10 7 9 0 0 4 17 0 7 11 0 4 3 17 0 0 17 10
split_gain=5098.85 507.895 180.386 60.8281 59.3399 56.95 49.2428 42.5209 26.5469 28.5383 23.6353 16.834 16.1275 18.8658 16.0875 13.9953 14.5636 11.6664 11.3811 12.3174 11.3389 10.3482 10.3042 14.9275 10.2244 10.3739 10.1821 16.331 10.0379 11.743
threshold=1.0000000180025095e-35 46.500000000000007 8.5000000000000018 1.0000000180025095e-35 8.5000000000000018 24.500000000000004 5.5000000000000009 1.0000000180025095e-35 1.5000000000000002 18.500000000000004 1.0000000180025095e-35 4.5000000000000009 13.500000000000002 24.500000000000004 4.5000000000000009 11.500000000000002 35.500000000000007 1.0000000180025095e-35 27.000000000000004 51.500000000000007 24.500000000000004 2.5000000000000004 61.500000000000007 1.0000000180025095e-35 1.0000000180025095e-35 22.000000000000004 11.500000000000002 30.500000000000004 27.000000000000004 18.500000000000004
decision_type=2 2 2 2 2 2 2 2 2 2 2 2 2 2 2 2 2 2 2 2 2 2 2 2 2 2 2 2 2 2
left_child=5 2 11 20 22 6 -1 18 -8 10 -10 -2 -9 -14 28 -13 -17 -18 19 -6 -4 -12 23 -3 25 -21 -16 -28 29 -5
right_child=1 4 3 14 7 -7 8 12 9 -11 21 15 13 -15 26 16 17 -19 -20 24 -22 -23 -24 -25 -26 -27 27 -29 -30 -31
leaf_value=0.048572385674849783 -0.013210195318697444 -0.00096577323433288888 -0.036468186311464729 -0.037913848715582454 -0.031781893592816537 0.046445575031562616 0.038641886500007584 0.0019099687743444978 0.020316898323920279 0.039740869605725648 -0.086418080907099973 -0.011450690218409672 -0.0036082772269520054 -0.019866787318969074 -0.013959418723254294 -0.0268003377458335 -0.012865912891217189 -0.052868149300838975 0.0026003331571099802 -0.013209314348057624 -0.044833819364883239 -0.0078971125724664921 0.004232076971375915 -0.023708357674565805 -0.030884140154496854 -0.04849825095308069 -0.032180746366016054 -0.01787858190067328 -0.021727963151952495 -0.028035212676765793
leaf_weight=516.21653066575527 1668.4474645256996 1269.0231763571501 1033.3160215467215 579.43829824030399 176.93887168169022 3175.3355484455824 567.86959877610207 543.0252301543951 544.73877668380737 219.18778097629547 6.872752487659457 334.72055381536484 509.68032442033291 274.52884754538536 249.45989964902401 810.90558010339737 357.65507985651493 19.205538630485535 59.589051112532616 582.27794519066811 666.20127204060555 10.773503899574278 1120.6648006141186 76.501661151647568 112.58047111332417 21.598530203104019 428.9236453473568 373.31188529729843 247.39620654284954 625.67018131911755
leaf_count=3897 9699 7855 5449 3132 974 23775 4104 3351 3690 1598 37 1972 3099 1601 1405 4520 2091 103 351 3355 3421 58 7004 450 644 122 2403 2091 1348 3388
internal_value=0.000101326 -0.0174495 -0.0256427 -0.0324466 -0.004685 0.042372 0.0354387 -0.0104991 0.0304145 0.0244368 0.018472 -0.0166794 -0.0047135 -0.00929991 -0.0274917 -0.0204811 -0.023026 -0.0149045 -0.0185569 -0.0199681 -0.0397475 -0.038479 0.00069071 -0.00225883 -0.0170505 -0.0144715 -0.022782 -0.0255254 -0.0309018 -0.032785
internal_weight=17182.1 12141.1 7394.65 4203.72 4746.41 5040.99 1865.66 2280.22 1349.44 781.573 562.385 3190.93 1327.23 784.209 2504.2 1522.49 1187.77 376.861 952.985 893.396 1699.52 17.6463 2466.19 1345.52 716.457 603.876 1051.7 802.236 1452.5 1205.11
internal_count=106987 69828 41022 22637 28806 37159 13384 13497 9487 5383 3785 18385 8051 4700 13767 8686 6714 2194 5446 5095 8870 95 15309 8305 4121 3477 5899 4494 7868 6520
is_linear=0
shrinkage=0.05


Tree=7
num_leaves=31
num_cat=0
split_feature=7 0 7 0 7 6 0 6 11 0 5 1 4 0 17 16 1 7 0 0 1 0 16 17 0 18 17 9 10 11
split_gain=4690.27 447.06 157.017 56.2434 53.1028 52.5643 48.3174 37.6599 25.9481 26.7526 16.5818 15.8029 15.6739 14.7008 14.0639 16.6214 13.0684 12.9652 11.793 25.4476 10.8567 11.6712 10.7012 10.4825 10.3291 10.2139 10.8004 10.769 11.3771 11.3702
threshold=1.0000000180025095e-35 46.500000000000007 8.5000000000000018 24.500000000000004 8.5000000000000018 1.0000000180025095e-35 5.5000000000000009 1.0000000180025095e-35 1.0000000180025095e-35 18.500000000000004 1.0000000180025095e-35 1.0000000180025095e-35 1.0000000180025095e-35 61.500000000000007 27.000000000000004 5.5000000000000009 1.0000000180025095e-35 46.500000000000007 11.500000000000002 30.500000000000004 1.0000000180025095e-35 35.500000000000007 4.5000000000000009 30.500000000000004 30.500000000000004 1.5000000000000002 5.5000000000000009 4.5000000000000009 6.5000000000000009 1.5000000000000002
decision_type=2 2 2 2 2 2 2 2 2 2 2 2 2 2 2 2 2 2 2 2 2 2 2 2 2 2 2 2 2 2
left_child=3 2 11 6 -3 20 -1 23 -8 10 -10 18 -13 -9 15 25 24 -17 -2 -20 21 -4 -23 -6 -16 27 -27 28 29 -7
right_child=1 4 5 -5 7 14 8 13 9 -11 -12 12 -14 -15 16 17 -18 -19 19 -21 -22 22 -24 -25 -26 26 -28 -29 -30 -31
leaf_value=0.04776280496519969 -0.0081278613813351441 0.00065684109028840004 -0.037960726260854567 0.045595123305158219 -0.018220650558606319 0.010998817676908076 0.044302843324667378 -0.0089240469329261839 0.022465002893384982 0.038513513910269831 -0.020418527917787171 -0.022457317318108322 -0.066417793478916229 0.0017285148690985776 -0.020717981957597328 -0.020246098841505463 -0.039051564610584122 -0.043477498854617103 -0.021177238900815576 -0.010388813116393846 -0.047334708854234908 -0.092593401941997389 -0.02645310090496035 0.017787280936682952 -0.0044355825874288239 -0.036581892116480719 -0.023777105558638167 -0.057570424352808507 -0.037469576432468725 -0.037283508974935403
leaf_weight=499.15306095778942 601.70725086331367 2465.0988724678755 1152.3887023031712 3075.3860380500555 941.88301703333855 25.90954178571701 242.02214168012142 773.68178179860115 744.19583883881569 312.84352895617485 23.246087685227394 405.93086199462414 21.342534005641937 557.06682676076889 275.15616756677628 760.65400476753712 64.826678946614265 65.206010088324547 1145.8023496568203 1045.2168676555157 222.99041421711445 6.2243093699216834 350.2221182435751 20.655149906873703 150.77368494868279 238.80050675570965 530.53907071053982 56.812022224068642 348.13862286508083 23.033927500247955
leaf_count=3897 3521 15309 5886 23775 5324 137 1819 4637 5197 2340 131 2300 101 3414 1501 4199 355 345 6400 6063 1131 32 1821 122 825 1267 2853 313 1850 122
internal_value=0.000110605 -0.0164229 -0.0240354 0.0414712 -0.00443777 -0.03032 0.0345084 -0.00991407 0.029505 0.0261898 0.021166 -0.0156981 -0.0246532 -0.00446476 -0.02574 -0.0275609 -0.0181374 -0.0220803 -0.014328 -0.0160307 -0.0370369 -0.035515 -0.0276081 -0.017448 -0.0149542 -0.031261 -0.0277517 -0.0372094 -0.0342962 -0.011724
internal_weight=17146.9 12250.1 7491.68 4896.85 4758.39 4271.68 1821.46 2293.29 1322.31 1080.29 767.442 3220 427.273 1330.75 2539.85 2049.09 490.757 825.86 2792.73 2191.02 1731.83 1508.84 356.446 962.538 425.93 1223.23 769.34 453.894 397.082 48.9435
internal_count=106987 69828 41022 37159 28806 22637 13384 13497 9487 7668 5328 18385 2401 8051 13767 11086 2681 4544 15984 12463 8870 7739 1853 5446 2326 6542 4120 2422 2109 259
is_linear=0
shrinkage=0.05


Tree=8
num_leaves=31
num_cat=0
split_feature=7 0 7 0 7 0 6 6 11 0 7 5 1 6 10 7 0 0 1 17 17 7 0 10 17 0 10 17 5 18
split_gain=4316.23 394.316 139.451 55.5484 47.546 47.4041 40.7678 33.398 25.2293 26.4417 22.4778 19.8645 18.3286 16.1136 14.3525 16.6615 13.3852 28.6218 10.3475 11.4896 11.885 10.187 10.0893 11.2867 10.0487 9.88526 9.77242 9.51391 9.33861 9.3215
threshold=1.0000000180025095e-35 46.500000000000007 12.500000000000002 24.500000000000004 8.5000000000000018 5.5000000000000009 1.0000000180025095e-35 1.0000000180025095e-35 1.5000000000000002 18.500000000000004 4.5000000000000009 1.0000000180025095e-35 1.0000000180025095e-35 1.0000000180025095e-35 13.500000000000002 24.500000000000004 11.500000000000002 24.500000000000004 1.0000000180025095e-35 27.000000000000004 2.5000000000000004 28.500000000000004 56.500000000000007 4.5000000000000009 5.5000000000000009 51.500000000000007 30.500000000000004 27.000000000000004 1.0000000180025095e-35 1.0000000180025095e-35
decision_type=2 2 2 2 2 2 2 2 2 2 2 2 2 2 2 2 2 2 2 2 2 2 2 2 2 2 2 2 2 2
left_child=3 2 10 5 25 -1 28 22 -7 11 -2 -10 13 26 -9 -16 21 29 19 20 -19 -8 23 -6 -23 -3 -12 -25 -4 -18
right_child=1 4 6 -5 7 8 16 14 9 -11 12 -13 -14 -15 15 -17 17 18 -20 -21 -22 24 -24 27 -26 -27 -28 -29 -30 -31
leaf_value=0.046968130679936874 -0.011569968602585553 -0.0063489328556463002 -0.036267740085139437 0.044758293860997098 -0.0024156746152310181 0.036861320131766823 -0.01294887300301888 0.0020225386982620618 0.018717359611023131 0.037901027869120835 -0.022469417363417461 -0.034454830956800235 -0.030623699995131815 -0.013579078023263157 -0.0031799972559216692 -0.018379164013495802 -0.049795358746655569 -0.01110413057825025 -0.034591469656230972 -0.0090735967781605895 -0.026442463167780386 -0.042092358977559752 -0.012442348781536352 -0.028762343908565347 -0.019180998622371291 0.0020624957130974939 -0.075158762847096772 0.010184334883761236 0.0016631698538826661 -0.033334957833779738
leaf_weight=482.63948345929384 1695.1149840950966 421.33455672860146 1473.9616570174694 2978.7093210965395 56.617189571261406 540.36529497802258 334.84579782187939 543.75088539719582 529.88587662577629 207.79052156209946 731.97667014598846 18.167245015501976 304.94729629158974 1108.8379677385092 512.11939319968224 278.28840979933739 104.36908458173275 159.235346108675 154.68146133422852 174.92749865353107 610.50584353506565 72.244563639163971 604.03724598884583 294.36294506490231 141.77328670024872 2042.7985732555389 8.9073740094900113 16.562724471092224 16.407531276345253 488.93009507656097
leaf_count=3897 9699 2579 7398 23775 313 4104 1807 3351 3690 1598 4001 95 1647 6162 3099 1601 558 856 828 950 3251 379 3442 1596 752 12730 50 95 83 2601
internal_value=0.000118394 -0.0154678 -0.0225538 0.0405832 -0.00420463 0.0335919 -0.0294412 -0.00936524 0.0286113 0.0227131 -0.0158774 0.0169548 -0.0192661 -0.0173937 -0.00423 -0.00853135 -0.0251799 -0.0273801 -0.0226037 -0.0206407 -0.0232694 -0.0183947 -0.0164169 -0.0229488 -0.026915 0.000624251 -0.0231029 -0.0266877 -0.0358502 -0.0362306
internal_weight=17109.1 12351.5 7581.67 4757.56 4769.87 1778.85 3731.88 2305.74 1296.21 755.844 3849.78 548.053 2154.67 1849.72 1334.16 790.408 2241.51 1692.65 1099.35 944.669 769.741 548.864 971.58 367.543 214.018 2464.13 740.884 310.926 1490.37 593.299
internal_count=106987 69828 41022 37159 28806 13384 19463 13497 9487 5383 21559 3785 11860 10213 8051 4700 11982 9044 5885 5057 4107 2938 5446 2004 1131 15309 4051 1691 7481 3159
is_linear=0
shrinkage=0.05


Tree=9
num_leaves=31
num_cat=0
split_feature=7 0 7 0 7 0 6 0 11 6 7 1 6 5 0 0 0 7 6 0 1 18 2 10 2 1 10 17 7 0
split_gain=3973.45 348.393 122.061 54.8759 42.5939 37.4811 35.5455 31.8236 31.6674 29.6569 19.8099 15.9863 14.1385 13.8998 13.0826 11.648 24.727 9.74088 12.5697 11.2034 9.64423 9.78813 9.42534 11.3817 9.1629 10.8453 9.28868 9.02809 8.93074 8.84102
threshold=1.0000000180025095e-35 46.500000000000007 12.500000000000002 30.500000000000004 8.5000000000000018 5.5000000000000009 1.0000000180025095e-35 18.500000000000004 1.0000000180025095e-35 1.0000000180025095e-35 4.5000000000000009 1.0000000180025095e-35 1.0000000180025095e-35 1.0000000180025095e-35 61.500000000000007 11.500000000000002 24.500000000000004 1.5000000000000002 1.0000000180025095e-35 51.500000000000007 1.0000000180025095e-35 1.5000000000000002 1.0000000180025095e-35 27.500000000000004 1.0000000180025095e-35 1.0000000180025095e-35 30.500000000000004 30.500000000000004 28.500000000000004 11.500000000000002
decision_type=2 2 2 2 2 2 2 2 2 2 2 2 2 2 2 2 2 2 2 2 2 2 2 2 2 2 2 2 2 2
left_child=3 2 10 5 17 -1 -4 8 -7 27 -2 12 29 -10 20 28 -17 -3 19 -19 -11 -22 -16 -24 25 26 -18 -6 -8 -12
right_child=1 4 6 -5 9 7 15 -9 13 14 11 -13 -14 -15 22 16 24 18 -20 -21 21 -23 23 -25 -26 -27 -28 -29 -30 -31
leaf_value=0.046186285193846127 -0.010920463348300664 0.0081913672248877922 -0.033507341360433825 0.044648235207073297 -0.016159981990026561 0.044713834532881767 -0.012219099937482809 0.037902869551768831 0.020817019929397416 -0.0067587460746373566 -0.011975919098728988 -0.028638386959048873 -0.012805997858020718 -0.018119976023114791 0.0084278701855259788 -0.033794987931257847 -0.020062819310535246 -0.014723642636778292 0.003898358444422028 -0.0018446336100894833 -0.053472896735543035 -0.0084861860897875972 -0.001507082296111871 -0.037404253660480773 -0.0066603543353671198 -0.035673960426258165 -0.071061868296033559 0.017350799659403612 -0.025227222075552586 -0.024720086572260162
leaf_weight=466.67623369395733 1705.8523575812578 360.1583152115345 1514.1993261426687 2536.5164777487516 959.44192625582218 150.65960997343063 337.04367689788342 723.67790392041206 721.78657399117947 731.03030766546726 178.66932715475559 309.65688917040825 1116.7775483876467 23.672133922576904 275.0587263405323 603.95983073115349 866.40996593236923 201.89163511991501 869.05894726514816 1032.0780108869076 22.960356891155243 25.542051821947098 258.53987747430801 24.143513962626457 98.403965428471565 137.90759499371052 9.021289333701132 20.528680175542831 216.83268091082573 571.01667450368404
leaf_count=3897 9699 2240 7481 20901 5324 1198 1807 5835 5197 4353 988 1647 6162 131 1685 3159 4579 1231 5398 6440 134 150 1588 141 536 723 47 122 1131 3063
internal_value=0.000124937 -0.0145776 -0.0211836 0.0397076 -0.00398428 0.0337012 -0.0275743 0.0301041 0.0238061 -0.00885029 -0.0149546 -0.018117 -0.0163715 0.0195806 -0.00400809 -0.0236159 -0.0256511 0.000593421 -0.000707781 -0.00395179 -0.00819127 -0.0297823 0.00183857 -0.004573 -0.0212269 -0.0226414 -0.0205884 -0.015458 -0.0173115 -0.0216828
internal_weight=17069.2 12446.2 7665.75 4622.99 4780.43 2086.47 3783.78 1619.8 896.118 2317.25 3881.97 2176.12 1866.46 745.459 1337.27 2269.58 1715.7 2463.19 2103.03 1233.97 779.533 48.5024 557.742 282.683 1111.74 1013.34 875.431 979.971 553.876 749.686
internal_count=106987 69828 41022 37159 28806 16258 19463 12361 6526 13497 21559 11860 10213 5328 8051 11982 9044 15309 13069 7671 4637 284 3414 1729 5885 5349 4626 5446 2938 4051
is_linear=0
shrinkage=0.05


end of trees

feature_importances:
age=93
date_diff=58
sms_received=23
scholarship=19
scheduledday_day=18
appointmentday_day=18
alcoholism=17
scheduledday_dow=17
handcap=11
scheduledday_month=9
hipertension=7
appointmentday_dow=6
diabetes=2
appointmentday_month=2

parameters:
[boosting: gbdt]
[objective: binary]
[metric: binary_logloss]
[tree_learner: serial]
[device_type: cpu]
[data_sample_strategy: bagging]
[data: ]
[valid: ]
[num_iterations: 10]
[learning_rate: 0.05]
[num_leaves: 31]
[num_threads: 4]
[seed: 0]
[deterministic: 0]
[force_col_wise: 0]
[force_row_wise: 0]
[histogram_pool_size: -1]
[max_depth: -1]
[min_data_in_leaf: 20]
[min_sum_hessian_in_leaf: 0.001]
[bagging_fraction: 1]
[pos_bagging_fraction: 1]
[neg_bagging_fraction: 1]
[bagging_freq: 0]
[bagging_seed: 3]
[bagging_by_query: 0]
[feature_fraction: 1]
[feature_fraction_bynode: 1]
[feature_fraction_seed: 2]
[extra_trees: 0]
[extra_seed: 6]
[early_stopping_round: 0]
[early_stopping_min_delta: 0]
[first_metric_only: 0]
[max_delta_step: 0]
[lambda_l1: 0]
[lambda_l2: 0]
[linear_lambda: 0]
[min_gain_to_split: 0]
[drop_rate: 0.1]
[max_drop: 50]
[skip_drop: 0.5]
[xgboost_dart_mode: 0]
[uniform_drop: 0]
[drop_seed: 4]
[top_rate: 0.2]
[other_rate: 0.1]
[min_data_per_group: 100]
[max_cat_threshold: 32]
[cat_l2: 10]
[cat_smooth: 10]
[max_cat_to_onehot: 4]
[top_k: 20]
[monotone_constraints: ]
[monotone_constraints_method: basic]
[monotone_penalty: 0]
[feature_contri: ]
[forcedsplits_filename: ]
[refit_decay_rate: 0.9]
[cegb_tradeoff: 1]
[cegb_penalty_split: 0]
[cegb_penalty_feature_lazy: ]
[cegb_penalty_feature_coupled: ]
[path_smooth: 0]
[interaction_constraints: ]
[verbosity: 1]
[saved_feature_importance_type: 0]
[use_quantized_grad: 0]
[num_grad_quant_bins: 4]
[quant_train_renew_leaf: 0]
[stochastic_rounding: 1]
[linear_tree: 0]
[max_bin: 15]
[max_bin_by_feature: ]
[min_data_in_bin: 3]
[bin_construct_sample_cnt: 200000]
[data_random_seed: 1]
[is_enable_sparse: 1]
[enable_bundle: 1]
[use_missing: 1]
[zero_as_missing: 0]
[feature_pre_filter: 1]
[pre_partition: 0]
[two_round: 0]
[header: 0]
[label_column: ]
[weight_column: ]
[group_column: ]
[ignore_column: ]
[categorical_feature: ]
[forcedbins_filename: ]
[precise_float_parser: 0]
[parser_config_file: ]
[objective_seed: 5]
[num_class: 1]
[is_unbalance: 0]
[scale_pos_weight: 1]
[sigmoid: 1]
[boost_from_average: 1]
[reg_sqrt: 0]
[alpha: 0.9]
[fair_c: 1]
[poisson_max_delta_step: 0.7]
[tweedie_variance_power: 1.5]
[lambdarank_truncation_level: 30]
[lambdarank_norm: 1]
[label_gain: ]
[lambdarank_position_bias_regularization: 0]
[eval_at: ]
[multi_error_top_k: 1]
[auc_mu_weights: ]
[num_machines: 1]
[local_listen_port: 12400]
[time_out: 120]
[machine_list_filename: ]
[machines: ]
[gpu_platform_id: -1]
[gpu_device_id: -1]
[gpu_use_dp: 0]
[num_gpu: 1]

end of parameters

pandas_categorical:[]
